digraph Tree {
node [shape=box, style="filled", color="black"] ;
0 [label="X[4] <= 1.5\nentropy = 1.0\nsamples = 124\nvalue = [62, 62]\nclass = 0", fillcolor="#ffffff"] ;
1 [label="entropy = 0.0\nsamples = 29\nvalue = [0, 29]\nclass = 1", fillcolor="#399de5"] ;
0 -> 1 [labeldistance=2.5, labelangle=45, headlabel="True"] ;
2 [label="X[0] <= 1.5\nentropy = 0.932\nsamples = 95\nvalue = [62, 33]\nclass = 0", fillcolor="#f3c4a2"] ;
0 -> 2 [labeldistance=2.5, labelangle=-45, headlabel="False"] ;
3 [label="X[1] <= 1.5\nentropy = 0.732\nsamples = 39\nvalue = [31, 8]\nclass = 0", fillcolor="#eca26c"] ;
2 -> 3 ;
4 [label="entropy = 0.0\nsamples = 8\nvalue = [0, 8]\nclass = 1", fillcolor="#399de5"] ;
3 -> 4 ;
5 [label="entropy = 0.0\nsamples = 31\nvalue = [31, 0]\nclass = 0", fillcolor="#e58139"] ;
3 -> 5 ;
6 [label="X[1] <= 1.5\nentropy = 0.992\nsamples = 56\nvalue = [31, 25]\nclass = 0", fillcolor="#fae7d9"] ;
2 -> 6 ;
7 [label="entropy = 0.0\nsamples = 20\nvalue = [20, 0]\nclass = 0", fillcolor="#e58139"] ;
6 -> 7 ;
8 [label="X[3] <= 1.5\nentropy = 0.888\nsamples = 36\nvalue = [11, 25]\nclass = 1", fillcolor="#90c8f0"] ;
6 -> 8 ;
9 [label="X[5] <= 1.5\nentropy = 0.75\nsamples = 14\nvalue = [3, 11]\nclass = 1", fillcolor="#6fb8ec"] ;
8 -> 9 ;
10 [label="entropy = 0.0\nsamples = 5\nvalue = [0, 5]\nclass = 1", fillcolor="#399de5"] ;
9 -> 10 ;
11 [label="entropy = 0.918\nsamples = 9\nvalue = [3, 6]\nclass = 1", fillcolor="#9ccef2"] ;
9 -> 11 ;
12 [label="X[5] <= 1.5\nentropy = 0.946\nsamples = 22\nvalue = [8, 14]\nclass = 1", fillcolor="#aad5f4"] ;
8 -> 12 ;
13 [label="entropy = 0.954\nsamples = 8\nvalue = [5, 3]\nclass = 0", fillcolor="#f5cdb0"] ;
12 -> 13 ;
14 [label="entropy = 0.75\nsamples = 14\nvalue = [3, 11]\nclass = 1", fillcolor="#6fb8ec"] ;
12 -> 14 ;
}